digraph Tree {
node [shape=box] ;
0 [label="X[2] <= 0.5\ngini = 0.498\nsamples = 212\nvalue = [100, 112]"] ;
1 [label="X[9] <= 0.7\ngini = 0.4\nsamples = 105\nvalue = [76, 29]"] ;
0 -> 1 [labeldistance=2.5, labelangle=45, headlabel="True"] ;
2 [label="X[11] <= 0.5\ngini = 0.491\nsamples = 37\nvalue = [16, 21]"] ;
1 -> 2 ;
3 [label="X[0] <= 41.5\ngini = 0.413\nsamples = 24\nvalue = [7, 17]"] ;
2 -> 3 ;
4 [label="gini = 0.0\nsamples = 3\nvalue = [3, 0]"] ;
3 -> 4 ;
5 [label="X[7] <= 147.0\ngini = 0.308\nsamples = 21\nvalue = [4, 17]"] ;
3 -> 5 ;
6 [label="X[0] <= 55.0\ngini = 0.5\nsamples = 6\nvalue = [3, 3]"] ;
5 -> 6 ;
7 [label="gini = 0.0\nsamples = 2\nvalue = [0, 2]"] ;
6 -> 7 ;
8 [label="X[8] <= 0.5\ngini = 0.375\nsamples = 4\nvalue = [3, 1]"] ;
6 -> 8 ;
9 [label="gini = 0.0\nsamples = 1\nvalue = [0, 1]"] ;
8 -> 9 ;
10 [label="gini = 0.0\nsamples = 3\nvalue = [3, 0]"] ;
8 -> 10 ;
11 [label="X[4] <= 327.5\ngini = 0.124\nsamples = 15\nvalue = [1, 14]"] ;
5 -> 11 ;
12 [label="gini = 0.0\nsamples = 13\nvalue = [0, 13]"] ;
11 -> 12 ;
13 [label="X[6] <= 0.5\ngini = 0.5\nsamples = 2\nvalue = [1, 1]"] ;
11 -> 13 ;
14 [label="gini = 0.0\nsamples = 1\nvalue = [1, 0]"] ;
13 -> 14 ;
15 [label="gini = 0.0\nsamples = 1\nvalue = [0, 1]"] ;
13 -> 15 ;
16 [label="X[1] <= 0.5\ngini = 0.426\nsamples = 13\nvalue = [9, 4]"] ;
2 -> 16 ;
17 [label="gini = 0.0\nsamples = 2\nvalue = [0, 2]"] ;
16 -> 17 ;
18 [label="X[3] <= 109.0\ngini = 0.298\nsamples = 11\nvalue = [9, 2]"] ;
16 -> 18 ;
19 [label="gini = 0.0\nsamples = 1\nvalue = [0, 1]"] ;
18 -> 19 ;
20 [label="X[7] <= 106.5\ngini = 0.18\nsamples = 10\nvalue = [9, 1]"] ;
18 -> 20 ;
21 [label="gini = 0.0\nsamples = 1\nvalue = [0, 1]"] ;
20 -> 21 ;
22 [label="gini = 0.0\nsamples = 9\nvalue = [9, 0]"] ;
20 -> 22 ;
23 [label="X[12] <= 2.5\ngini = 0.208\nsamples = 68\nvalue = [60, 8]"] ;
1 -> 23 ;
24 [label="X[11] <= 0.5\ngini = 0.426\nsamples = 26\nvalue = [18, 8]"] ;
23 -> 24 ;
25 [label="X[6] <= 0.5\ngini = 0.497\nsamples = 13\nvalue = [6, 7]"] ;
24 -> 25 ;
26 [label="gini = 0.0\nsamples = 4\nvalue = [0, 4]"] ;
25 -> 26 ;
27 [label="X[7] <= 163.5\ngini = 0.444\nsamples = 9\nvalue = [6, 3]"] ;
25 -> 27 ;
28 [label="X[3] <= 115.0\ngini = 0.245\nsamples = 7\nvalue = [6, 1]"] ;
27 -> 28 ;
29 [label="gini = 0.0\nsamples = 1\nvalue = [0, 1]"] ;
28 -> 29 ;
30 [label="gini = 0.0\nsamples = 6\nvalue = [6, 0]"] ;
28 -> 30 ;
31 [label="gini = 0.0\nsamples = 2\nvalue = [0, 2]"] ;
27 -> 31 ;
32 [label="X[4] <= 301.0\ngini = 0.142\nsamples = 13\nvalue = [12, 1]"] ;
24 -> 32 ;
33 [label="gini = 0.0\nsamples = 10\nvalue = [10, 0]"] ;
32 -> 33 ;
34 [label="X[9] <= 2.2\ngini = 0.444\nsamples = 3\nvalue = [2, 1]"] ;
32 -> 34 ;
35 [label="gini = 0.0\nsamples = 1\nvalue = [0, 1]"] ;
34 -> 35 ;
36 [label="gini = 0.0\nsamples = 2\nvalue = [2, 0]"] ;
34 -> 36 ;
37 [label="gini = 0.0\nsamples = 42\nvalue = [42, 0]"] ;
23 -> 37 ;
38 [label="X[12] <= 2.5\ngini = 0.348\nsamples = 107\nvalue = [24, 83]"] ;
0 -> 38 [labeldistance=2.5, labelangle=-45, headlabel="False"] ;
39 [label="X[0] <= 56.5\ngini = 0.219\nsamples = 80\nvalue = [10, 70]"] ;
38 -> 39 ;
40 [label="X[4] <= 154.5\ngini = 0.07\nsamples = 55\nvalue = [2, 53]"] ;
39 -> 40 ;
41 [label="X[9] <= 0.7\ngini = 0.5\nsamples = 2\nvalue = [1, 1]"] ;
40 -> 41 ;
42 [label="gini = 0.0\nsamples = 1\nvalue = [0, 1]"] ;
41 -> 42 ;
43 [label="gini = 0.0\nsamples = 1\nvalue = [1, 0]"] ;
41 -> 43 ;
44 [label="X[3] <= 109.0\ngini = 0.037\nsamples = 53\nvalue = [1, 52]"] ;
40 -> 44 ;
45 [label="X[1] <= 0.5\ngini = 0.444\nsamples = 3\nvalue = [1, 2]"] ;
44 -> 45 ;
46 [label="gini = 0.0\nsamples = 2\nvalue = [0, 2]"] ;
45 -> 46 ;
47 [label="gini = 0.0\nsamples = 1\nvalue = [1, 0]"] ;
45 -> 47 ;
48 [label="gini = 0.0\nsamples = 50\nvalue = [0, 50]"] ;
44 -> 48 ;
49 [label="X[0] <= 61.5\ngini = 0.435\nsamples = 25\nvalue = [8, 17]"] ;
39 -> 49 ;
50 [label="X[3] <= 145.0\ngini = 0.444\nsamples = 9\nvalue = [6, 3]"] ;
49 -> 50 ;
51 [label="gini = 0.0\nsamples = 6\nvalue = [6, 0]"] ;
50 -> 51 ;
52 [label="gini = 0.0\nsamples = 3\nvalue = [0, 3]"] ;
50 -> 52 ;
53 [label="X[11] <= 2.5\ngini = 0.219\nsamples = 16\nvalue = [2, 14]"] ;
49 -> 53 ;
54 [label="X[7] <= 157.5\ngini = 0.124\nsamples = 15\nvalue = [1, 14]"] ;
53 -> 54 ;
55 [label="gini = 0.0\nsamples = 13\nvalue = [0, 13]"] ;
54 -> 55 ;
56 [label="X[3] <= 137.5\ngini = 0.5\nsamples = 2\nvalue = [1, 1]"] ;
54 -> 56 ;
57 [label="gini = 0.0\nsamples = 1\nvalue = [0, 1]"] ;
56 -> 57 ;
58 [label="gini = 0.0\nsamples = 1\nvalue = [1, 0]"] ;
56 -> 58 ;
59 [label="gini = 0.0\nsamples = 1\nvalue = [1, 0]"] ;
53 -> 59 ;
60 [label="X[4] <= 228.0\ngini = 0.499\nsamples = 27\nvalue = [14, 13]"] ;
38 -> 60 ;
61 [label="X[9] <= 1.95\ngini = 0.32\nsamples = 10\nvalue = [2, 8]"] ;
60 -> 61 ;
62 [label="gini = 0.0\nsamples = 8\nvalue = [0, 8]"] ;
61 -> 62 ;
63 [label="gini = 0.0\nsamples = 2\nvalue = [2, 0]"] ;
61 -> 63 ;
64 [label="X[4] <= 311.0\ngini = 0.415\nsamples = 17\nvalue = [12, 5]"] ;
60 -> 64 ;
65 [label="X[10] <= 1.5\ngini = 0.32\nsamples = 15\nvalue = [12, 3]"] ;
64 -> 65 ;
66 [label="X[11] <= 2.0\ngini = 0.153\nsamples = 12\nvalue = [11, 1]"] ;
65 -> 66 ;
67 [label="gini = 0.0\nsamples = 10\nvalue = [10, 0]"] ;
66 -> 67 ;
68 [label="X[9] <= 1.9\ngini = 0.5\nsamples = 2\nvalue = [1, 1]"] ;
66 -> 68 ;
69 [label="gini = 0.0\nsamples = 1\nvalue = [0, 1]"] ;
68 -> 69 ;
70 [label="gini = 0.0\nsamples = 1\nvalue = [1, 0]"] ;
68 -> 70 ;
71 [label="X[4] <= 262.0\ngini = 0.444\nsamples = 3\nvalue = [1, 2]"] ;
65 -> 71 ;
72 [label="gini = 0.0\nsamples = 1\nvalue = [1, 0]"] ;
71 -> 72 ;
73 [label="gini = 0.0\nsamples = 2\nvalue = [0, 2]"] ;
71 -> 73 ;
74 [label="gini = 0.0\nsamples = 2\nvalue = [0, 2]"] ;
64 -> 74 ;
}